svm_type c_svc
kernel_type linear
nr_class 2
total_sv 12
rho 0.0244639
label 0 1
probA -2.80574
probB 0.306429
nr_sv 6 6
SV
0.0176833606081689 1:0.8996793 2:-4.6946783 3:-1.035825 4:-2.1256745 5:1.1058015 6:2.475883 7:0.66501963 8:-1.0448862 9:0.43952405 10:-0.73598754 11:-0.91403782 12:0.64082611 13:-0.88048321 14:-1.150068 15:0.10690834 16:-1.7362328 17:1.0555191 18:-0.55771732 19:-0.059727013 20:-0.81004137 21:-1.2160361 22:1.9451203 23:1.2386111 24:-2.8607862 25:0.13117766 26:-0.65149248 27:-1.2142147 28:1.0938336 29:-1.1553324 30:-3.0312548 31:-6.2193084 32:0.10876026 33:-2.3356435 34:2.2122061 35:0.45149201 36:-1.14281 37:-1.2232962 38:-0.99429876 39:-1.3665928 40:1.7213538 41:-3.2397192 42:-2.5082946 43:0.28724977 44:0.37452561 45:0.14254396 46:-1.1435735 47:0.37286919 48:-2.0840857 49:0.3451485 50:-3.1879115 51:0.43739685 52:1.5075902 53:-1.2030283 54:0.19537039 55:0.48562768 56:-1.387688 57:-1.8475296 58:-0.50949478 59:-5.71102 60:0.66712606 61:-0.68796939 62:-0.70612568 63:0.97775877 64:-1.6147102 65:0.23408318 66:1.6444823 67:-4.3182349 68:-1.1940178 69:-0.95848006 70:-0.2562755 71:-0.12870324 72:-1.157155 73:-2.6157842 74:-0.004560329 75:-0.20601308 76:0.1990532 77:-1.3108257 78:3.5857878 79:-2.9644053 80:-1.7996174 81:-3.29966 82:0.23075442 83:-0.56312186 84:-0.89432365 85:0.76879615 86:-1.7817218 87:2.5256152 88:0.084051669 89:-2.1548471 90:1.0198578 91:0.83034921 92:-0.034264904 93:-0.7767458 94:3.3865664 95:3.4329011 96:-3.286598 97:0.33177894 98:2.1285076 99:-1.3916999 100:-0.030368783 101:-1.6724966 102:2.0907581 103:0.98097801 104:-0.42968589 105:-1.9355698 106:0.68236995 107:-5.2054405 108:-0.5797624 109:-0.53694355 110:0.97228497 111:-1.0101212 112:-0.68538189 113:-1.4307508 114:-0.23389423 115:-2.4235125 116:-0.82271916 117:-2.8268754 118:-1.7591224 119:0.37177306 120:1.9445018 121:-0.46394631 122:1.7279371 123:-4.1481752 124:-1.5776227 125:0.79919356 126:0.73933142 127:-0.071389958 128:-0.75653523 129:-0.89349544 130:1.435589 131:1.2524254 132:-1.4009367 133:0.20881012 134:-2.9119377 135:-1.286994 136:0.37079352 137:-1.6349812 138:0.44607699 139:1.2283809 140:1.5033201 141:0.50250214 142:1.831724 143:2.8168235 144:2.7689836 145:2.0406735 146:1.0595872 147:-2.1736982 148:-4.3896785 149:-2.6252041 150:-0.018271748 151:-1.0442492 152:-1.6593901 153:0.067961611 154:0.9745627 155:-2.4345782 156:-0.89218235 157:-2.2392392 158:0.12352294 159:-1.6999146 160:1.1390005 161:4.9344573 162:-0.83486664 163:-2.6180267 164:0.28967071 165:0.025395781 166:-0.76219904 167:0.9666068 168:0.11963791 169:-4.6754737 170:1.6452799 171:2.7665508 172:-0.33307627 173:-0.66655254 174:-2.0607591 175:-1.6385531 176:1.4121823 177:-3.0681059 178:-1.7931522 179:-0.1374118 180:0.46101329 181:-1.8922637 182:-0.87119174 183:-0.41533342 184:-0.29830891 185:-2.8220968 186:0.21885695 187:-1.5285678 188:-2.8251512 189:3.4133432 190:-4.2172618 191:-2.5299263 192:0.37768501 193:1.4624014 194:-1.3200097 195:0.44281825 196:-2.497967 197:0.97211242 198:-2.5754788 199:0.28400761 200:0.19198763 201:-2.1175585 202:-3.8600502 203:-0.022028938 204:-0.07953842 205:1.6011668 206:-1.3160472 207:0.49513012 208:-0.35759294 209:-0.95629174 210:-1.3806489 211:-1.631701 212:-1.5955579 213:-3.3750222 214:-2.5212677 215:-2.9272556 216:-0.93414152 217:0.628658 218:2.0765522 219:-0.5513047 220:1.9993551 221:-1.5085125 222:-1.5815763 223:1.3071314 224:-0.30707526 225:0.20273852 226:1.2189604 227:-0.54496485 228:0.70057195 229:-1.0259778 230:-2.3604891 231:1.7239615 232:-0.28564015 233:3.7048042 234:-0.34379232 235:-1.2149627 236:-1.4122498 237:-2.1548703 238:0.014145423 239:-0.15825628 240:-0.47215533 241:1.1669537 242:0.87957728 243:3.5400472 244:-2.7340658 245:2.6727431 246:2.3744514 247:0.32453907 248:-0.92859685 249:0.21468402 250:-3.5852199 251:1.7627732 252:-3.9770534 253:0.85451514 254:-5.3683987 255:-1.0671102 256:0.99583483 
0.005655669989255362 1:0.95505112 2:-4.0865798 3:-1.2876391 4:-2.0890195 5:1.1642917 6:2.328001 7:0.92190886 8:-1.5207385 9:0.016785204 10:-0.59384918 11:-1.2214268 12:0.97404945 13:-0.92710757 14:-1.427223 15:0.90773648 16:-1.4669603 17:1.4583437 18:-0.4088293 19:0.50997972 20:-1.1801478 21:-1.4165915 22:1.8648696 23:1.3473151 24:-2.6163237 25:0.4504703 26:-0.93616563 27:-1.4646082 28:1.2768594 29:-1.3980695 30:-3.0516434 31:-6.2582426 32:-0.70637524 33:-2.5504506 34:2.3957331 35:0.53115106 36:-1.6707942 37:-0.94631737 38:-1.2267475 39:-1.499593 40:1.6331261 41:-3.0208366 42:-2.5311806 43:0.80923045 44:0.44287568 45:0.58966368 46:-0.58226031 47:0.24265064 48:-2.3287561 49:-0.37191546 50:-2.8533697 51:0.83944285 52:1.7340415 53:-1.4392321 54:0.05262858 55:0.07281813 56:-0.85782897 57:-0.84438813 58:-0.50431758 59:-5.9659348 60:0.8534646 61:-1.4090474 62:-0.86333454 63:0.64573103 64:-1.4909787 65:-0.16503823 66:1.6453915 67:-4.2404723 68:-1.319438 69:-0.78432381 70:0.25250617 71:0.35829386 72:-1.3765924 73:-2.4490774 74:0.063504092 75:-0.6506663 76:-0.20047148 77:-1.7621566 78:3.742023 79:-2.6019208 80:-1.8506011 81:-3.2212188 82:-0.015152178 83:-0.41036254 84:-1.2411914 85:0.50528729 86:-1.3946818 87:3.1356263 88:-0.49578273 89:-2.1696794 90:1.0038269 91:0.93116748 92:0.16025881 93:-1.4208161 94:3.4425623 95:3.7132034 96:-3.3006449 97:-0.067833982 98:2.9503255 99:-1.665267 100:0.065426037 101:-1.5925255 102:2.13922 103:0.9440822 104:-0.70898783 105:-1.5906061 106:1.750882 107:-6.4612832 108:-0.19845106 109:-0.67787361 110:0.91333479 111:-1.1701165 112:-0.96861875 113:-2.3431804 114:0.30954036 115:-2.6613984 116:-0.77492541 117:-2.9480343 118:-1.9856907 119:0.29827124 120:1.9690094 121:0.20024005 122:1.5940305 123:-3.6862779 124:-0.92195129 125:1.0097547 126:0.56650186 127:-0.30068126 128:-0.70525295 129:-1.2380816 130:1.311335 131:0.63560975 132:-1.133606 133:-0.069874361 134:-3.0520968 135:-1.0147781 136:0.71550685 137:-1.8229332 138:0.53652662 139:1.4496979 140:1.3651347 141:0.4070749 142:1.3193449 143:2.9403541 144:2.3401113 145:2.294627 146:1.2014066 147:-1.8107654 148:-4.0616255 149:-2.9159398 150:0.28547749 151:-0.59130365 152:-1.7711827 153:0.28645271 154:0.94747823 155:-2.7876451 156:-0.68270093 157:-1.9281974 158:0.63713145 159:-2.0300305 160:0.29290944 161:5.206068 162:-0.61022782 163:-2.7729938 164:0.078060672 165:-0.014060885 166:-0.92402029 167:0.88399261 168:-0.230158 169:-4.8999906 170:1.5092969 171:2.4057119 172:-0.35097381 173:-0.55430436 174:-2.3857281 175:-1.0803621 176:1.5215294 177:-3.3112133 178:-2.1966977 179:-0.046478897 180:0.78046483 181:-2.1025665 182:-1.1795025 183:-0.46757323 184:0.42498145 185:-2.52829 186:1.0639458 187:-1.5862094 188:-2.8046601 189:3.5003541 190:-4.036109 191:-1.9121546 192:0.42343873 193:0.9838202 194:-0.27787036 195:0.13198243 196:-2.1772521 197:1.461844 198:-3.0778799 199:0.033516936 200:-0.019055447 201:-1.9994016 202:-4.0495796 203:0.3735553 204:0.058878794 205:1.4726363 206:-1.4092342 207:0.7744633 208:-0.39138341 209:-0.41765583 210:-1.5248932 211:-1.8391192 212:-1.5514321 213:-2.7614641 214:-2.6882029 215:-2.7349639 216:-1.4400729 217:0.70213884 218:1.7218866 219:-0.46810856 220:1.946632 221:-1.747159 222:-1.7942955 223:1.7477931 224:-0.041536178 225:-0.11240285 226:0.87761581 227:-0.46143961 228:0.53205401 229:-0.91771477 230:-2.3435936 231:2.2007446 232:0.16392827 233:3.9374015 234:-0.35655093 235:-1.9917575 236:-1.5873235 237:-2.0747118 238:0.25187987 239:0.24176039 240:-1.1108893 241:1.26379 242:0.74293411 243:3.7090847 244:-2.7018936 245:2.7661781 246:2.6113331 247:-0.31901813 248:-1.6546326 249:0.1806064 250:-4.0163784 251:1.7024467 252:-3.7918539 253:0.87010258 254:-6.1200032 255:-0.94821906 256:1.3927319 
0.0004234713794393765 1:1.3258265 2:-3.8058217 3:-0.94242525 4:-2.4878545 5:1.38787 6:2.0947485 7:0.57553363 8:-1.6003963 9:0.25680488 10:-1.0285413 11:-0.87274677 12:1.3201631 13:-0.94753844 14:-0.89727211 15:0.86558789 16:-1.7183369 17:1.1707952 18:-0.48807636 19:0.26903862 20:-1.6112943 21:-1.731903 22:2.2474992 23:1.2038224 24:-2.6942954 25:0.60981208 26:-1.0781702 27:-1.2427882 28:1.1942543 29:-1.3598162 30:-3.1520748 31:-6.1724396 32:-0.70001686 33:-2.0107274 34:1.9953139 35:0.57303023 36:-1.48007 37:-1.0248444 38:-1.2769407 39:-1.3245883 40:1.6004604 41:-2.7102981 42:-2.6899965 43:0.25975204 44:0.14324275 45:0.52623498 46:-0.6354683 47:0.66630566 48:-2.372895 49:-0.39876974 50:-3.028311 51:0.51375276 52:1.7082809 53:-1.2671368 54:0.08739695 55:-0.040676393 56:-1.1298598 57:-1.8403729 58:-0.60391605 59:-5.6867495 60:0.83479142 61:-2.0670996 62:-0.58549327 63:0.93826246 64:-0.90696543 65:-0.74877024 66:1.5305467 67:-4.3766985 68:-1.3488274 69:-0.84048462 70:-0.073304676 71:-0.16642311 72:-2.3065858 73:-2.7731912 74:-0.11600862 75:-0.63813108 76:0.057048097 77:-1.7334589 78:3.4314196 79:-2.7248425 80:-1.6329597 81:-3.2694693 82:0.095980361 83:-0.82688832 84:-1.6628171 85:0.51188105 86:-1.5000331 87:3.4189687 88:-0.46130979 89:-2.3210061 90:1.3109945 91:0.58514392 92:-0.14873226 93:-1.4519447 94:3.7605431 95:3.3410239 96:-3.5787783 97:0.49873686 98:2.9645061 99:-2.3771999 100:-0.018198323 101:-2.0215957 102:2.3317273 103:0.93332273 104:-0.29386836 105:-2.15768 106:1.0531491 107:-6.7859044 108:0.048134312 109:-0.20580769 110:0.64919716 111:-1.2100189 112:-0.72658592 113:-1.9938582 114:-0.059495926 115:-2.5932651 116:-0.96106726 117:-3.0242283 118:-1.9215264 119:0.20518911 120:1.786732 121:0.61142415 122:1.5722092 123:-3.961338 124:-1.5612105 125:0.64569211 126:0.7393685 127:0.152248 128:-0.62854862 129:-0.99750268 130:1.0049142 131:0.88878477 132:-1.3536922 133:-0.63195783 134:-3.1768312 135:-1.7383633 136:1.1487565 137:-1.8623595 138:0.41082799 139:0.99236572 140:1.7768728 141:0.442002 142:1.7365189 143:1.8291482 144:1.9051324 145:2.1521513 146:1.4233691 147:-2.4064198 148:-3.9685152 149:-2.7223229 150:0.2922872 151:-0.5973857 152:-1.7735605 153:0.22716804 154:1.0572886 155:-2.5345154 156:-0.45683727 157:-2.7797158 158:0.38907194 159:-1.7254679 160:-0.70972151 161:4.5756531 162:-0.47164029 163:-2.8744047 164:-0.97902554 165:-0.2312424 166:-0.75159019 167:0.99546188 168:-0.19377792 169:-5.1209874 170:0.94447571 171:2.6260056 172:-0.056498457 173:-0.82970047 174:-2.2168829 175:-1.2275022 176:1.1071297 177:-3.5067136 178:-2.1167088 179:0.027467236 180:0.51703644 181:-1.6805201 182:-1.0986085 183:-0.98061848 184:0.19893649 185:-2.5393498 186:2.2377083 187:-1.2769483 188:-2.718504 189:3.457149 190:-4.3925161 191:-2.4627399 192:0.42118514 193:0.823026 194:-0.41031554 195:0.55912614 196:-2.7182133 197:1.068235 198:-1.9451079 199:0.19280666 200:-0.032057248 201:-2.4662941 202:-4.0146613 203:0.11979864 204:-0.034653619 205:1.3620415 206:-1.5873157 207:1.2195351 208:-0.48038584 209:-0.50174415 210:-1.8049747 211:-1.2102365 212:-2.7086899 213:-3.2120588 214:-2.6404455 215:-2.9909277 216:-1.0955144 217:0.91616732 218:1.9353638 219:-0.15325209 220:2.0071709 221:-1.2995658 222:-1.6865038 223:1.4250573 224:0.23850901 225:-0.24079114 226:0.94878298 227:-0.90994132 228:0.036247429 229:-0.43034774 230:-2.4475029 231:1.8194822 232:-0.37340835 233:4.0198412 234:-0.19029424 235:-1.5610451 236:-1.2020537 237:-1.5111673 238:0.70679688 239:0.32875586 240:-1.101899 241:1.0416799 242:0.55302548 243:3.3831613 244:-2.2728448 245:2.6973715 246:2.2406728 247:0.058717784 248:-0.92552745 249:0.32306015 250:-3.8831606 251:1.2959398 252:-3.5918405 253:0.5201571 254:-5.5452981 255:-0.89987284 256:1.307124 
0.001680423209058301 1:1.5114993 2:-4.5809193 3:-1.1775563 4:-2.332098 5:1.5709856 6:2.2892663 7:0.76971692 8:-1.4732194 9:0.06336993 10:-0.5657925 11:-0.89311552 12:1.1384689 13:-0.91167271 14:-1.443141 15:0.70957798 16:-1.8101373 17:1.4868243 18:-0.65838838 19:0.13964628 20:-1.1346055 21:-1.2724979 22:2.2731602 23:1.4046324 24:-2.7619672 25:0.37179506 26:-0.9978146 27:-1.084493 28:1.2782078 29:-1.300799 30:-3.2655394 31:-6.4849792 32:-0.29239735 33:-2.429601 34:1.9919088 35:-0.022670746 36:-1.5436715 37:-1.1824794 38:-1.0665861 39:-1.0616047 40:1.7439225 41:-3.0286148 42:-2.7297981 43:0.24441449 44:0.23320442 45:0.45222118 46:-0.9091258 47:0.32390037 48:-2.3953898 49:-0.3756566 50:-3.4983225 51:0.51147789 52:1.7070365 53:-1.3253043 54:0.19316012 55:0.058364674 56:-1.2011704 57:-1.0592332 58:-0.26680055 59:-5.6458335 60:0.61125135 61:-1.5995998 62:-0.45869786 63:0.66761625 64:-1.5066488 65:-0.23238164 66:0.93743241 67:-4.5047832 68:-1.1035759 69:-0.89305764 70:0.19236755 71:0.22235581 72:-2.1532276 73:-3.2508807 74:-0.21224922 75:-0.78312445 76:-0.037321597 77:-1.3771781 78:4.074625 79:-2.7808778 80:-1.8178967 81:-3.7349377 82:-0.093813054 83:-0.45623881 84:-1.8505632 85:0.47008407 86:-1.8391355 87:3.3968875 88:-0.32780403 89:-2.3918793 90:1.0941361 91:0.47621867 92:-0.082789242 93:-1.2800533 94:3.2727513 95:3.3435256 96:-3.6184371 97:0.020361071 98:2.7497864 99:-1.8821689 100:-0.14227942 101:-1.6714644 102:1.8773444 103:0.88840795 104:-0.59756327 105:-2.5060875 106:1.1053337 107:-6.4327469 108:0.052600428 109:-0.33266425 110:0.9591524 111:-1.0413204 112:-1.00779 113:-2.0808911 114:-0.2490758 115:-2.9309742 116:-0.73420435 117:-3.0573323 118:-2.0328534 119:0.18902235 120:1.6786613 121:0.40123394 122:1.4812337 123:-4.1274443 124:-0.96418256 125:1.1935507 126:0.70350212 127:-0.31443036 128:-0.73278522 129:-1.0661528 130:1.3627872 131:0.79676121 132:-1.5539855 133:-0.30030373 134:-3.5572762 135:-1.182757 136:0.34902263 137:-1.7435195 138:0.57316029 139:0.69123125 140:1.5935148 141:0.50113124 142:1.5421623 143:2.5111537 144:2.2146721 145:2.1637502 146:1.3537625 147:-2.1916389 148:-4.1076632 149:-3.0948176 150:-0.32764268 151:-0.94505769 152:-1.5726871 153:0.4204987 154:1.3604828 155:-2.6396573 156:-0.52726513 157:-2.3837435 158:0.20677656 159:-1.7560707 160:-0.038658991 161:5.0825043 162:-0.38120103 163:-2.5166197 164:-0.16166249 165:-0.11430192 166:-0.50837505 167:1.1154218 168:-0.084906399 169:-5.1838813 170:1.4962704 171:2.8037817 172:-0.23434328 173:-1.3219075 174:-1.9467998 175:-1.3656598 176:1.5093035 177:-3.498493 178:-1.7438152 179:-0.18491355 180:0.81890261 181:-2.0199816 182:-0.99672145 183:-0.60551053 184:0.21660072 185:-2.6106856 186:1.1247092 187:-1.476361 188:-2.7253644 189:3.2215533 190:-4.0395703 191:-2.7834482 192:0.28382915 193:0.85252923 194:-0.61353767 195:1.0559295 196:-2.5429225 197:1.510884 198:-2.8993082 199:0.21600185 200:0.092802808 201:-2.416213 202:-3.7551484 203:-0.047850341 204:-0.054654211 205:1.3151788 206:-1.5670904 207:0.93566102 208:-0.46560079 209:-1.0647712 210:-1.536055 211:-1.5354416 212:-1.7889857 213:-3.1688991 214:-2.9936767 215:-2.6485078 216:-0.98680776 217:0.80280024 218:1.9864848 219:-0.14942497 220:1.9904761 221:-1.5252409 222:-1.4808069 223:1.415758 224:0.28378019 225:-0.28492904 226:0.91867924 227:-0.67641681 228:0.27470919 229:-0.79074395 230:-2.4169796 231:2.4735501 232:-0.26727137 233:3.5292153 234:-0.21642217 235:-1.5320849 236:-1.3002075 237:-2.0192769 238:0.5201335 239:0.062672928 240:-0.86065555 241:1.2630435 242:0.86408091 243:3.5162122 244:-2.8748808 245:2.6922357 246:2.4677215 247:-0.11363485 248:-1.3329616 249:0.13445026 250:-3.8694725 251:1.8327975 252:-3.6981475 253:0.51891679 254:-5.7658424 255:-0.98793215 256:1.2441463 
0.02490793232821288 1:1.2813745 2:-4.2147613 3:-1.1517372 4:-2.2421594 5:1.311272 6:2.2289355 7:0.83346498 8:-1.088939 9:0.068124332 10:-0.48809791 11:-0.84089375 12:0.88039213 13:-0.99913937 14:-1.3814535 15:0.94496125 16:-1.7780852 17:1.4204092 18:-0.77465641 19:0.2987501 20:-1.3756913 21:-1.3085732 22:1.8692118 23:1.5003005 24:-2.4860315 25:0.46644402 26:-0.70772773 27:-1.2140247 28:1.1161962 29:-1.4183627 30:-2.8954175 31:-5.9297094 32:-0.37155923 33:-2.1972177 34:2.351397 35:0.036621861 36:-1.5613794 37:-0.92489165 38:-1.0842327 39:-0.92712963 40:1.5175974 41:-3.2157478 42:-2.4498689 43:0.56704986 44:0.22874138 45:0.26566306 46:-0.54129845 47:0.17548078 48:-2.1150477 49:0.070273876 50:-3.7278869 51:0.87761408 52:1.931493 53:-1.7093955 54:0.30854782 55:0.12674481 56:-0.8374145 57:-1.1247609 58:-0.66952038 59:-5.5459499 60:0.674496 61:-1.6033177 62:-0.54277974 63:0.31794488 64:-1.7604867 65:-0.37330076 66:1.173872 67:-4.0417714 68:-1.1867172 69:-0.98276317 70:0.16968879 71:0.024127886 72:-1.88694 73:-3.1582584 74:-0.045318037 75:-0.77563423 76:-0.14556552 77:-1.6082561 78:3.5868337 79:-2.6538873 80:-1.9101681 81:-3.2060754 82:-0.10364316 83:-0.79116815 84:-2.0198781 85:0.44615847 86:-1.7960445 87:3.2543478 88:-0.47428799 89:-2.461467 90:1.123755 91:0.68902683 92:0.11347431 93:-1.3944529 94:3.5826087 95:3.4904172 96:-3.5097184 97:-0.10810622 98:2.6071062 99:-1.9976441 100:-0.33270329 101:-1.8706892 102:2.132566 103:0.85644108 104:-0.58580858 105:-1.8863025 106:1.2040924 107:-6.1048446 108:-0.40888309 109:-0.36960506 110:0.98746437 111:-1.3274758 112:-0.66759121 113:-1.681641 114:-0.075483054 115:-2.6506088 116:-0.70633423 117:-2.8248637 118:-2.2351341 119:0.41704953 120:1.9487555 121:0.64207226 122:1.4968526 123:-3.7581224 124:-0.92849845 125:0.70657575 126:1.1703541 127:-0.27419713 128:-0.78160262 129:-0.99140322 130:0.86981231 131:0.83862346 132:-1.3358089 133:-0.26673627 134:-3.429358 135:-1.0838761 136:0.37942231 137:-1.6549127 138:0.32240313 139:1.1684484 140:1.479594 141:0.42452571 142:1.3005648 143:2.5019572 144:2.3228376 145:1.9849576 146:1.1935416 147:-1.9864069 148:-3.9542167 149:-3.155273 150:0.24752587 151:-0.8860268 152:-1.7418672 153:0.20755449 154:1.1604986 155:-2.689786 156:-0.79885727 157:-2.15817 158:0.19207324 159:-1.548041 160:-0.34837431 161:4.7511535 162:-0.44933659 163:-2.9261456 164:-0.0057058781 165:-0.23092379 166:-0.69059145 167:1.0365812 168:-0.50641835 169:-4.66184 170:1.6633677 171:2.7428865 172:-0.1118754 173:-0.79915899 174:-1.786715 175:-1.6145915 176:1.6326525 177:-3.5874085 178:-2.2148972 179:0.084044546 180:0.60780972 181:-1.9949962 182:-1.383235 183:-0.55947429 184:0.53849316 185:-2.3790319 186:0.62029254 187:-1.4740692 188:-2.7542267 189:3.5425148 190:-4.5968599 191:-2.1752048 192:0.7606827 193:0.85602218 194:-0.7239368 195:0.73619574 196:-2.4412577 197:1.2866793 198:-2.7559755 199:0.15593332 200:0.19430767 201:-2.3235621 202:-4.1198306 203:0.081530571 204:0.22536279 205:1.2802225 206:-1.5792332 207:0.65056187 208:-0.47562355 209:-0.73246318 210:-1.50462 211:-1.7595683 212:-1.6709527 213:-2.6577275 214:-2.7940969 215:-2.6746211 216:-1.4306151 217:0.5170539 218:1.7601871 219:-0.83318603 220:1.9240041 221:-1.7715267 222:-1.5317103 223:1.4735187 224:0.088053197 225:-0.27153695 226:0.85358226 227:-0.88002455 228:0.27428266 229:-0.87929773 230:-2.4319592 231:1.7100583 232:0.18383138 233:3.2994745 234:-0.62573957 235:-1.7097887 236:-1.5978373 237:-2.1617825 238:-0.12066953 239:0.19193102 240:-0.75254351 241:0.93846667 242:0.62589264 243:3.415379 244:-2.63028 245:2.6443868 246:2.5524995 247:-0.24894345 248:-0.96796352 249:0.22092851 250:-3.6585426 251:1.6856139 252:-3.4384911 253:0.89614791 254:-5.2352657 255:-1.2995327 256:1.4768087 
0.006086347056530506 1:1.0535854 2:-4.0703068 3:-1.0575161 4:-2.4409494 5:1.1798617 6:2.071588 7:0.50686371 8:-1.7752293 9:-0.090161785 10:-0.72632164 11:-0.96842563 12:1.5333966 13:-1.0739366 14:-1.5697368 15:0.88565022 16:-1.4829613 17:1.0919878 18:-0.55263412 19:0.43215516 20:-1.4852151 21:-1.4624374 22:1.8724285 23:0.90684164 24:-2.4806688 25:0.38305801 26:-0.9975509 27:-0.75315267 28:1.2154788 29:-1.4587995 30:-3.3743918 31:-6.1599097 32:-0.45000109 33:-2.0273314 34:3.3538043 35:0.20563574 36:-1.5469186 37:-1.3434113 38:-1.0390329 39:-0.98817384 40:1.5720327 41:-3.3191674 42:-2.4706326 43:0.46576971 44:0.4481836 45:1.0583048 46:-1.0792556 47:0.15874754 48:-2.6807618 49:-0.088610619 50:-2.8521092 51:0.75610608 52:1.2909409 53:-1.6980424 54:-0.12550764 55:-0.11132947 56:-0.89331162 57:-0.88820982 58:-0.19648249 59:-5.5971303 60:0.49242228 61:-1.8246684 62:-0.47631288 63:0.21583998 64:-2.4817989 65:-0.15295911 66:0.42295364 67:-4.5117474 68:-0.88646305 69:-0.96577686 70:0.10858108 71:0.48322693 72:-1.0742285 73:-2.1366806 74:0.27128124 75:-0.48910099 76:-0.53759259 77:-1.8195696 78:4.0448565 79:-2.7317157 80:-1.4528067 81:-3.1563199 82:0.17242691 83:-0.57017887 84:-1.6065083 85:0.95393163 86:-1.8318975 87:2.7130163 88:-0.21428525 89:-2.7075706 90:1.4732158 91:0.85700953 92:-0.20959304 93:-1.3372288 94:3.8726654 95:3.7620201 96:-3.0439119 97:-0.16082133 98:2.8529139 99:-1.4674202 100:-0.67632884 101:-1.8864467 102:1.9874628 103:0.87402952 104:0.24523383 105:-2.2295039 106:1.4304078 107:-6.1776114 108:-1.0980781 109:-0.70551759 110:1.4410942 111:-0.82134342 112:-0.43328971 113:-1.9293007 114:0.15114085 115:-2.7584038 116:-0.5781098 117:-2.7700024 118:-1.8813392 119:0.41502893 120:1.4464253 121:0.038334541 122:1.3833094 123:-3.526885 124:-0.88967025 125:1.1026 126:0.39633465 127:0.037893731 128:-0.88839859 129:-1.0725904 130:1.2029667 131:0.62446457 132:-1.4534476 133:-0.32912841 134:-3.1680291 135:-1.4294786 136:-0.3609485 137:-1.4125987 138:1.116941 139:0.92083287 140:1.4889129 141:0.81995052 142:1.89434 143:2.8991549 144:1.9575499 145:2.3959353 146:1.3011675 147:-1.896158 148:-4.2406826 149:-2.8616447 150:0.10074593 151:-0.29132044 152:-1.6900212 153:0.74398959 154:0.97728527 155:-2.7231531 156:-0.13010682 157:-1.6227677 158:0.70570463 159:-2.0605793 160:0.89273053 161:5.1222396 162:-0.20736544 163:-2.6526186 164:-0.0067913979 165:-0.035534233 166:-1.0374947 167:0.85321259 168:-0.35493645 169:-4.912652 170:1.6911671 171:2.6668158 172:-0.13579649 173:-1.0070024 174:-2.1237662 175:-0.53278995 176:1.2817641 177:-3.2031248 178:-1.9533658 179:0.019795209 180:0.47505772 181:-1.8452414 182:-1.0193678 183:-1.4283195 184:0.70657122 185:-2.3545914 186:0.74266976 187:-0.89942557 188:-2.734339 189:2.5947275 190:-4.6223769 191:-2.2885756 192:0.48216355 193:0.58563673 194:-0.62097895 195:1.1608216 196:-2.4960723 197:1.9473391 198:-2.9857941 199:-0.35585254 200:-0.71203971 201:-2.3979332 202:-3.8684306 203:-0.12935302 204:0.64807826 205:1.3975151 206:-1.335353 207:1.4107215 208:-0.69290715 209:-0.55283427 210:-1.507023 211:-1.3035783 212:-0.95974076 213:-2.3346534 214:-2.5225921 215:-2.4076591 216:-1.2577027 217:0.80894864 218:1.9948338 219:-0.36071855 220:1.8358794 221:-2.4583652 222:-1.3755946 223:1.6481726 224:0.48969507 225:-0.37691379 226:0.56640935 227:-0.8499859 228:0.20082463 229:-1.5800127 230:-1.5793775 231:1.9862409 232:-0.52453744 233:2.7793195 234:-0.18861994 235:-2.0491447 236:-1.8500162 237:-2.7024646 238:0.19700108 239:0.026913032 240:-1.1057476 241:1.0734543 242:0.51298338 243:3.4680805 244:-3.135715 245:3.1784403 246:2.3589253 247:0.30518287 248:-1.5340226 249:0.63810104 250:-3.7218277 251:1.8326687 252:-3.0928764 253:0.43303847 254:-5.3322339 255:-0.93960947 256:1.5189056 
-0.03289223698909145 1:0.90397674 2:-4.6423535 3:-0.99715 4:-2.6022286 5:1.0389919 6:2.6432865 7:1.082351 8:-0.74507391 9:0.08306133 10:-0.13929179 11:0.087868936 12:0.73159307 13:0.104688 14:-1.5720005 15:0.53072935 16:-1.5617079 17:0.52819818 18:-0.66805148 19:-0.06274046 20:-0.72148389 21:-1.4034135 22:1.0637077 23:1.3831923 24:-3.0354795 25:-0.53006595 26:-0.2407746 27:-1.4680705 28:1.294277 29:-1.0322101 30:-2.9318047 31:-5.7966981 32:-0.3740958 33:-2.4631867 34:0.72370237 35:-0.084498331 36:-1.4615148 37:-0.59078646 38:-0.62264442 39:-0.48245504 40:1.1329285 41:-2.3675535 42:-2.145134 43:0.0065503316 44:0.4516125 45:-0.16081195 46:-0.90204686 47:0.10366986 48:-2.0962119 49:-0.42809522 50:-3.7892351 51:0.71842831 52:1.6114316 53:-0.99970639 54:0.11545271 55:0.74372649 56:-1.4110874 57:-1.4257568 58:-0.3677122 59:-5.6661925 60:0.27674451 61:-0.40521547 62:-0.37466365 63:0.17551696 64:-0.85132474 65:-1.076329 66:1.8047094 67:-4.2941093 68:-1.0583198 69:-0.69589728 70:-0.64541537 71:-0.08558856 72:-1.671855 73:-2.824898 74:-0.37566629 75:-0.20096049 76:0.61059463 77:-2.0697081 78:3.7205563 79:-2.8053296 80:-2.2034979 81:-3.2257228 82:-0.53087962 83:0.15068613 84:-1.6950707 85:-0.062507689 86:-1.9160961 87:2.7854686 88:-0.097964734 89:-2.0035594 90:0.86078185 91:0.56334269 92:0.26122594 93:-0.67777383 94:3.09374 95:3.2384403 96:-1.5077274 97:1.0688825 98:1.7713693 99:-2.6062503 100:-0.11330494 101:-1.6269255 102:1.9094827 103:0.61249197 104:-0.51628911 105:-2.1734939 106:1.3294963 107:-5.6558123 108:0.14386334 109:-0.87108541 110:0.63776863 111:-2.019031 112:-0.45460665 113:-1.8733872 114:0.040860362 115:-2.7507162 116:-0.9016791 117:-3.5476694 118:-1.979266 119:0.37800729 120:1.7368029 121:0.22121011 122:1.2345506 123:-4.1637592 124:-2.3003287 125:0.89625853 126:1.6849692 127:-0.24174196 128:-0.5249384 129:-1.0354947 130:0.7423473 131:0.9040544 132:-0.86049908 133:-0.10341762 134:-3.2198274 135:-1.3718138 136:1.0397359 137:-1.0545123 138:-0.035942961 139:1.3931286 140:0.7911467 141:0.22982103 142:2.0446649 143:2.1571326 144:2.4681537 145:1.7165526 146:1.3638461 147:-2.6408455 148:-3.7901847 149:-2.2750814 150:-0.58881372 151:-1.0668176 152:-1.8839294 153:-0.83805311 154:1.1818752 155:-2.017786 156:-0.18967625 157:-1.5026848 158:0.24395813 159:-0.49519193 160:-0.53282797 161:4.373229 162:-0.88470221 163:-3.3505597 164:0.58017212 165:-0.070299923 166:-0.81299722 167:1.1552045 168:-0.86126459 169:-4.2240191 170:0.95312816 171:2.7909713 172:-0.85378945 173:-0.37647912 174:-2.5054154 175:-1.2206527 176:1.197899 177:-3.1545279 178:-2.591701 179:0.30088905 180:0.42337269 181:-1.7747145 182:-0.46307382 183:0.24006891 184:0.047382623 185:-2.9684939 186:1.3246751 187:-1.9455974 188:-2.2782028 189:3.4127069 190:-4.5673175 191:-1.5955607 192:0.094966821 193:1.4129803 194:-0.62855375 195:-0.92577767 196:-1.5496023 197:0.43770456 198:-1.6137049 199:0.45612735 200:-0.091563463 201:-2.4257128 202:-4.1956801 203:0.19742604 204:0.57338333 205:1.8535696 206:-1.0855689 207:0.15478334 208:0.07999219 209:-0.96735805 210:-1.9150428 211:-1.6281509 212:-0.91677904 213:-2.6741664 214:-1.9912097 215:-2.8757143 216:-0.91424513 217:0.99636769 218:2.1237497 219:-0.75634682 220:1.9725885 221:-2.0400035 222:-1.1514089 223:1.0796456 224:-0.10185528 225:0.04725799 226:1.6424139 227:-1.0731387 228:1.0102181 229:-0.7615065 230:-2.7812428 231:1.6975615 232:0.29350153 233:3.8117433 234:-1.0785224 235:-1.1125503 236:-1.6421609 237:-1.6790682 238:0.45707214 239:0.23034981 240:-0.31458339 241:0.41721809 242:0.56007391 243:2.9436307 244:-2.6793654 245:2.5355999 246:2.5478337 247:-0.52840495 248:-1.3811437 249:0.20304139 250:-3.7517512 251:1.7318456 252:-3.2985787 253:0.44047052 254:-4.8791523 255:-1.6436698 256:0.82076323 
-0.0079464236354606 1:1.7657384 2:-5.3659658 3:-0.51819825 4:-3.7054985 5:1.1386623 6:1.4716508 7:0.3378042 8:-2.30335 9:0.014937527 10:-0.86641526 11:0.046561532 12:2.0280445 13:-0.2878508 14:-1.7311754 15:0.95699883 16:-0.79561073 17:1.1023908 18:-0.66507715 19:0.41987571 20:-0.12840432 21:-1.3346008 22:1.0350851 23:1.0406281 24:-2.0771012 25:0.90261048 26:-1.531276 27:-1.4416339 28:1.2296982 29:-1.0029088 30:-3.7641022 31:-7.1081243 32:0.035504416 33:-2.6760924 34:2.5750387 35:-0.15053037 36:-1.5340687 37:-1.0012989 38:-0.8934809 39:-0.18697989 40:1.2694454 41:-3.6217878 42:-1.6378081 43:0.7003445 44:0.73586434 45:0.85219479 46:-1.5234548 47:-0.22184344 48:-2.9082444 49:-0.34768313 50:-2.7806833 51:0.8625468 52:0.63368094 53:-2.002183 54:-0.49601346 55:-0.11393987 56:-0.78882504 57:-0.41988334 58:0.54161769 59:-5.6896505 60:1.1986514 61:-1.6125386 62:-0.31301403 63:0.2123403 64:-1.9023488 65:-1.330689 66:0.68341392 67:-5.4664488 68:-0.40654457 69:-0.57314003 70:1.153942 71:0.63176274 72:-0.9432047 73:-3.5616062 74:0.31784457 75:-1.6635768 76:-0.69820118 77:-1.5825764 78:4.6045556 79:-3.5086579 80:-2.2320852 81:-3.4695795 82:-0.95794386 83:0.034593977 84:-2.4542804 85:0.80216223 86:-1.0530216 87:3.721113 88:-0.1536492 89:-2.9756765 90:1.7288709 91:0.80621016 92:0.3538799 93:-1.1958604 94:3.9899893 95:4.6016784 96:-2.6800897 97:-0.074309491 98:1.7741423 99:-1.4277323 100:-1.4409002 101:-2.0821688 102:1.6074976 103:1.0550869 104:0.55271912 105:-3.1189029 106:1.6075462 107:-6.4665909 108:-1.2976285 109:0.041827887 110:1.7153401 111:-1.6694237 112:-0.19099499 113:-1.6597271 114:-0.51323295 115:-2.691659 116:-0.894036 117:-2.5032969 118:-1.6232648 119:1.0194106 120:1.9171239 121:0.2083185 122:1.18225 123:-3.4427757 124:-1.6830051 125:0.73011845 126:0.77143884 127:-0.094797909 128:-0.5473578 129:-1.2993027 130:2.2829359 131:0.079317115 132:-0.51972938 133:-0.15272006 134:-3.056361 135:-2.4448273 136:-0.020400003 137:-2.1104708 138:0.70503753 139:1.1908164 140:1.5280681 141:1.6621094 142:1.2595549 143:3.249944 144:2.9279268 145:1.7517619 146:1.6342884 147:-2.2253213 148:-3.0654054 149:-2.6246634 150:0.33489257 151:-0.96774572 152:-1.6261775 153:0.87920278 154:0.88862514 155:-2.3102431 156:0.35882363 157:-1.8727369 158:0.24469379 159:-1.19938 160:0.067619011 161:4.9098678 162:-0.043492101 163:-2.8983166 164:0.6819663 165:0.8416636 166:-1.452437 167:0.773031 168:-0.62481284 169:-5.4427776 170:1.770462 171:3.0758932 172:-0.12363505 173:-0.23495273 174:-1.665271 175:-0.3020249 176:0.86325163 177:-3.2971334 178:-2.1716988 179:-0.38646743 180:0.084958248 181:-1.9009473 182:-0.55360651 183:-1.001783 184:0.85460591 185:-2.3883767 186:0.17145851 187:-1.0898623 188:-3.4386909 189:4.0880418 190:-4.0265021 191:-2.2820206 192:0.61313403 193:1.0825384 194:-0.51075947 195:1.0096157 196:-1.9985743 197:1.6700737 198:-3.2909083 199:-0.66448116 200:-0.63583404 201:-1.9178478 202:-3.6891706 203:-1.2733409 204:1.034487 205:1.6930597 206:-1.0885471 207:1.268232 208:-0.58586788 209:-1.9265441 210:-1.182972 211:-2.0089972 212:-0.77509427 213:-2.3385119 214:-3.4376118 215:-2.148927 216:-0.56921571 217:0.13007565 218:1.9388982 219:-0.9977383 220:2.9867308 221:-3.0746598 222:-0.37646967 223:1.9198453 224:0.96538836 225:-0.27505279 226:0.91367376 227:0.58236152 228:-0.15895471 229:-1.1945503 230:-1.5220245 231:1.7196572 232:-0.47062972 233:2.3184936 234:-1.364939 235:-1.4483751 236:-1.3021115 237:-3.1186867 238:0.40329713 239:-0.35632634 240:-0.85575521 241:-0.68666756 242:0.8713997 243:3.7862086 244:-3.2767832 245:3.2315578 246:2.2778552 247:1.1504681 248:-1.8390353 249:0.91039318 250:-4.1704879 251:2.3001115 252:-3.4078748 253:0.088917315 254:-5.1817012 255:-1.8030555 256:1.060233 
-0.006548196057657863 1:2.0501904 2:-5.5492754 3:-0.73959428 4:-3.7981076 5:1.6454709 6:1.6694168 7:-0.60713381 8:-2.7979455 9:-0.4385148 10:-0.92396045 11:0.19782786 12:1.3730501 13:-0.56137186 14:-1.8171744 15:1.2551086 16:-0.52075589 17:1.7386501 18:-1.1238496 19:0.79925692 20:0.46958753 21:-1.8515364 22:0.48489791 23:0.94507951 24:-2.1540225 25:1.0924543 26:-2.2208202 27:-1.3919947 28:0.54589766 29:-1.7496195 30:-4.3588572 31:-6.4488077 32:-0.43339184 33:-3.179323 34:2.8287091 35:-0.59263986 36:-1.7793925 37:-1.0815158 38:-0.38591713 39:-0.47330627 40:1.1242974 41:-3.5388653 42:-1.2227418 43:0.82604253 44:0.92661273 45:0.75735468 46:-1.2235913 47:0.33067474 48:-1.9713373 49:0.19018383 50:-2.7670608 51:1.5728006 52:1.4011872 53:-1.9461954 54:-0.41195491 55:-0.28919849 56:-1.0809848 57:-0.42372492 58:0.74141032 59:-5.3779202 60:1.4211062 61:-0.67803758 62:-0.91864216 63:0.039233416 64:-1.9253094 65:-1.7810663 66:2.0630627 67:-4.9402652 68:-0.76284671 69:-0.56500834 70:1.387779 71:-0.058838692 72:-0.75850779 73:-3.7992861 74:0.09961649 75:-0.78739339 76:-1.193177 77:-2.221962 78:4.6679249 79:-2.8561616 80:-2.4312663 81:-3.3861945 82:-0.22008447 83:0.036115028 84:-1.9078165 85:0.91962129 86:-1.2780455 87:3.9083285 88:-0.39695257 89:-3.2223799 90:1.6503285 91:1.0658042 92:0.22674288 93:-1.192829 94:3.8756008 95:5.0603495 96:-3.1840494 97:-0.17280483 98:1.7524103 99:-2.0730355 100:-0.87401772 101:-2.1079872 102:1.9099785 103:1.1791868 104:-0.029182337 105:-3.1938951 106:1.6664507 107:-6.5236177 108:-0.53402531 109:-0.59375739 110:0.91956323 111:-0.5665279 112:-0.73138553 113:-2.1745365 114:-0.096837372 115:-2.8646441 116:-1.3895274 117:-2.84937 118:-1.7184029 119:0.70187038 120:3.2170241 121:0.50109345 122:1.4502103 123:-2.6645706 124:-1.4492177 125:0.70320767 126:0.83650702 127:-0.50784487 128:-0.87314445 129:-0.97989047 130:2.0314348 131:0.65241045 132:-1.253288 133:-0.7232002 134:-2.3556914 135:-1.5265046 136:0.54868585 137:-2.6348703 138:0.058608502 139:1.8546919 140:2.2554879 141:1.4794338 142:1.7012768 143:3.6439629 144:2.4896703 145:2.2545531 146:2.2204654 147:-2.0773654 148:-3.2302506 149:-2.4701059 150:0.53440893 151:-0.75240874 152:-1.8121767 153:0.41776961 154:0.67565954 155:-3.5677505 156:0.17516772 157:-1.414382 158:0.32662407 159:-1.7988726 160:0.1995756 161:5.1427684 162:-0.041158959 163:-3.4877303 164:1.1742172 165:0.67432165 166:-0.70528376 167:0.49491614 168:-0.64528215 169:-5.8382707 170:2.0022655 171:1.8892984 172:0.58207172 173:-0.081029937 174:-2.1877325 175:-0.54458952 176:1.2078712 177:-3.3517628 178:-2.3460736 179:-0.0019339621 180:-0.42673221 181:-1.5317764 182:0.10021946 183:-0.061157566 184:0.6287483 185:-2.2155528 186:0.2055511 187:-0.95877451 188:-3.0658214 189:4.1043458 190:-4.5831652 191:-1.1210955 192:1.1075288 193:0.97201985 194:-0.30678686 195:0.7710312 196:-2.6476862 197:1.9187918 198:-3.8207757 199:-1.0586625 200:-0.53463703 201:-1.9276646 202:-3.0855825 203:-1.4492836 204:0.018560722 205:1.1107991 206:-1.1996698 207:0.077658683 208:-0.33410287 209:-1.0927292 210:-1.1676418 211:-1.1725266 212:-0.8363744 213:-2.7989624 214:-3.4707265 215:-2.311048 216:-0.30668837 217:0.44834876 218:1.8334224 219:-0.89378583 220:3.0598025 221:-2.2633083 222:-0.32401171 223:2.7631485 224:1.0206825 225:-0.38276336 226:0.42546409 227:-0.13779989 228:-0.20703501 229:-1.8270217 230:-1.4762037 231:1.7739431 232:-0.59339398 233:4.1518993 234:-0.74930799 235:-1.1570952 236:-1.4061568 237:-3.1762316 238:0.97494811 239:-1.170333 240:-1.0355154 241:0.14822131 242:0.56521088 243:4.2252622 244:-3.7022836 245:3.1698434 246:1.8997958 247:0.84205526 248:-0.58390117 249:0.49619508 250:-3.9850323 251:2.8037345 252:-4.063869 253:0.84528553 254:-5.4331665 255:-1.3231006 256:0.66703844 
-0.002748109004827843 1:1.8995914 2:-5.5525479 3:-1.3194299 4:-3.6514952 5:0.74870759 6:1.3674451 7:-0.091607764 8:-2.3867607 9:-0.35534754 10:-1.1023562 11:0.056084432 12:2.0694432 13:-0.33666143 14:-1.8181767 15:0.78678781 16:-1.3837904 17:1.5093052 18:-0.89612097 19:0.67669189 20:-0.33874819 21:-1.9781731 22:0.60518688 23:1.1014496 24:-2.3187304 25:0.96002418 26:-1.4616677 27:-1.6143342 28:0.74355024 29:-1.4258924 30:-3.9133713 31:-7.2471862 32:0.042529739 33:-3.3908668 34:2.7809038 35:-0.62015337 36:-1.727396 37:-0.93546575 38:-1.0782565 39:-0.3430081 40:1.494747 41:-3.7166672 42:-1.2187077 43:0.82997787 44:0.42796779 45:0.70093256 46:-1.5964118 47:-0.060967635 48:-3.2378128 49:-0.16925636 50:-3.2308891 51:1.1351383 52:1.5088264 53:-2.1796539 54:-0.35430238 55:-0.25224262 56:-0.50708973 57:-0.93544793 58:0.36036494 59:-5.8366332 60:1.4684905 61:-1.8240483 62:-0.24413152 63:0.077497751 64:-2.2255521 65:-1.110678 66:1.2509906 67:-4.968854 68:-0.38980269 69:-0.93896651 70:1.0964808 71:-0.072417453 72:-1.1875644 73:-4.3548446 74:0.37533247 75:-1.4005435 76:-0.67188847 77:-1.7391747 78:4.3141913 79:-3.6295929 80:-1.7537988 81:-3.5683091 82:-0.78530264 83:-0.052095585 84:-2.1508446 85:0.53575659 86:-1.2466003 87:3.0858531 88:-0.076283082 89:-3.0029123 90:1.0669569 91:0.79617262 92:0.26366091 93:-0.93582606 94:3.6578066 95:5.0647383 96:-2.2844257 97:0.55350608 98:1.7421359 99:-1.6153277 100:-1.0992814 101:-1.7695841 102:2.1767106 103:1.0899591 104:0.33113515 105:-2.7478423 106:1.6569426 107:-6.6229587 108:-0.79665136 109:-0.19925129 110:0.52187645 111:-1.5475469 112:-1.0623391 113:-1.8309978 114:-0.10941809 115:-2.7653637 116:-1.0952905 117:-2.5042169 118:-1.9341253 119:0.47120333 120:1.5990027 121:-0.28215128 122:1.4331591 123:-3.0560782 124:-2.0797803 125:0.65337706 126:0.20714611 127:-0.60372287 128:-1.0929917 129:-1.3515167 130:1.1928813 131:0.26302564 132:-1.0264127 133:-0.49399221 134:-3.1012435 135:-1.2303262 136:0.09937349 137:-2.2466114 138:0.50425673 139:1.5880998 140:1.8253506 141:1.4582002 142:1.9143395 143:3.1229749 144:2.5647843 145:2.1960516 146:2.0342975 147:-2.3770974 148:-2.9906671 149:-2.6354043 150:-0.55114186 151:-0.80158067 152:-2.4568434 153:0.19085594 154:0.46113095 155:-2.779043 156:0.14014824 157:-1.9079534 158:0.96597022 159:-1.2727112 160:-0.27622688 161:5.3473535 162:-0.30843037 163:-4.2140632 164:0.47711396 165:0.50120991 166:-1.1539593 167:1.0817983 168:-1.1215696 169:-5.6726255 170:1.645066 171:2.3974042 172:0.4303197 173:-0.36225569 174:-2.1958256 175:-0.65551949 176:1.290604 177:-2.9594269 178:-2.628016 179:-0.19937932 180:-0.24097079 181:-1.6984323 182:-0.39413676 183:-1.0686657 184:0.17031249 185:-2.686136 186:0.76194316 187:-1.3062173 188:-4.0088687 189:3.6652138 190:-4.7432542 191:-1.7019892 192:1.4962864 193:0.74367118 194:-0.55134249 195:0.23988204 196:-2.4803736 197:1.3308095 198:-3.5672269 199:-0.55143076 200:-0.49080089 201:-1.7442601 202:-3.6547523 203:-1.9087597 204:0.5521366 205:1.0321116 206:-1.4044241 207:0.26803592 208:-0.61436629 209:-1.5433099 210:-1.3071518 211:-1.3959897 212:-1.1190013 213:-2.7693629 214:-3.420716 215:-2.2777138 216:-0.44895744 217:0.10037762 218:1.891711 219:-1.0407096 220:2.8251166 221:-2.2261014 222:-0.70409006 223:2.4569054 224:0.93485528 225:-0.27442127 226:0.67629439 227:-0.37569502 228:-0.37267339 229:-1.4563172 230:-2.2782688 231:1.4669088 232:-1.0614058 233:2.9594452 234:-1.2377529 235:-1.5530778 236:-1.0427917 237:-3.0047193 238:0.33069551 239:-1.0504826 240:-0.6196503 241:-0.33328313 242:0.28054652 243:3.5965097 244:-3.6336076 245:3.3158369 246:2.3243153 247:0.3413564 248:-1.3640076 249:1.3044763 250:-4.466043 251:1.9728878 252:-3.9833004 253:0.2191312 254:-5.3419995 255:-1.8096905 256:0.5889641 
-0.004472083613935703 1:2.5245264 2:-4.8322711 3:-1.290241 4:-3.5694053 5:1.6103888 6:0.90351576 7:0.64663237 8:-2.0312605 9:-1.1281577 10:-0.046861883 11:-0.39924997 12:2.080653 13:-0.43734825 14:-1.3250949 15:1.5285933 16:-0.91484571 17:1.3129656 18:-0.84028006 19:1.059206 20:-0.084232524 21:-1.7761755 22:1.1704299 23:1.005378 24:-2.2234781 25:0.56872481 26:-1.0512459 27:-1.4911271 28:1.2629511 29:-2.110009 30:-3.4115102 31:-6.6250901 32:-0.11338038 33:-2.8796117 34:4.3057103 35:-0.49359754 36:-1.7868038 37:-1.2553678 38:-0.60152543 39:-0.21220195 40:1.5279214 41:-2.9528325 42:-2.0895576 43:1.2491161 44:1.137794 45:0.067048192 46:-1.2928737 47:0.24993946 48:-1.2556204 49:0.10198314 50:-3.2407589 51:1.2978565 52:1.6931398 53:-2.0403683 54:0.35773051 55:-0.3951669 56:-0.3441689 57:-0.82380557 58:0.31425574 59:-6.0904107 60:1.4662083 61:-0.94334817 62:-0.012392243 63:0.33567107 64:-0.91785115 65:0.051335454 66:1.4219192 67:-4.6605244 68:0.1566093 69:-0.62179101 70:0.77199918 71:0.79591686 72:-0.65558219 73:-3.6906059 74:0.019871905 75:-0.81532669 76:0.65908945 77:-1.4945655 78:5.0679011 79:-3.0644879 80:-2.370616 81:-3.9099543 82:-0.81895339 83:-0.85786074 84:-2.8816032 85:0.68220091 86:-0.32732558 87:4.2020621 88:-0.55938679 89:-2.7226348 90:1.1731528 91:0.96326625 92:0.13011266 93:-1.3329575 94:3.6037669 95:4.7030764 96:-1.6708684 97:1.560288 98:1.7143296 99:-1.3482232 100:-0.92656666 101:-1.3172492 102:1.501065 103:1.4324954 104:0.38458589 105:-1.7423149 106:1.60063 107:-5.7757826 108:-0.52517653 109:-1.2643368 110:1.2236824 111:-1.7691486 112:-0.68671 113:-1.7049479 114:-0.15673548 115:-2.0059254 116:-1.3614992 117:-2.4444644 118:-1.5929847 119:1.3397677 120:2.4170811 121:0.6570906 122:1.85985 123:-3.5317285 124:-1.313918 125:0.78252572 126:0.86307073 127:-0.2149497 128:-0.22922164 129:-0.6176244 130:1.4296402 131:0.95523584 132:-0.72983181 133:-0.40060374 134:-2.4817262 135:-1.9534243 136:-0.43531984 137:-1.5358866 138:-0.16956002 139:0.86993319 140:2.4770927 141:1.9046798 142:2.544714 143:3.4268007 144:2.2742074 145:2.5858481 146:2.9173748 147:-1.6349157 148:-2.8028181 149:-2.4686732 150:-0.12632592 151:-0.62628943 152:-2.0031409 153:1.0902418 154:1.2096853 155:-2.724875 156:0.76685697 157:-1.9698423 158:0.21822655 159:-0.79309541 160:0.37436062 161:5.4944897 162:-0.15567724 163:-3.134274 164:0.32781249 165:0.91238332 166:-0.98274982 167:1.3771573 168:-0.60693908 169:-4.9843388 170:2.480221 171:2.6759501 172:-0.15421066 173:-1.2236838 174:-1.4835588 175:-0.070918754 176:0.9556275 177:-3.4297681 178:-2.3592484 179:-0.88586581 180:-0.4514963 181:-1.7307317 182:0.72698897 183:-0.46972841 184:1.5106409 185:-2.4664824 186:-0.017269969 187:-1.1100473 188:-4.3835759 189:2.3364489 190:-4.0296249 191:-2.2204189 192:0.16769367 193:0.28335857 194:0.28100634 195:0.54063427 196:-2.0295706 197:2.5452981 198:-4.4689517 199:-0.69865203 200:-0.32476929 201:-1.7513527 202:-3.0116611 203:-1.2177521 204:0.15044348 205:0.86592335 206:-1.1420146 207:1.293759 208:-0.58651078 209:-1.3459485 210:-1.6079341 211:-1.2162575 212:0.55880308 213:-2.0337245 214:-3.164463 215:-2.4088624 216:0.40588802 217:0.21109466 218:2.6575818 219:-1.3287125 220:2.9819596 221:-2.4423344 222:-0.57563508 223:1.829842 224:0.42237088 225:-0.5115847 226:0.34823728 227:0.64746481 228:-0.45491984 229:-1.5934594 230:-2.0898857 231:2.8202195 232:0.17734864 233:3.6232905 234:-0.61252338 235:-1.8565104 236:-1.4653654 237:-3.5638723 238:0.57457966 239:-0.73343003 240:-1.3376031 241:0.58324242 242:-0.099324487 243:3.7399337 244:-3.3815732 245:2.9101989 246:1.8072746 247:0.74273801 248:-0.85459107 249:1.0899553 250:-4.476902 251:2.5500882 252:-3.8884499 253:-0.18192515 254:-4.853076 255:-1.4985425 256:1.5664552 
-0.00183015526969187 1:1.1830204 2:-5.2701135 3:-1.1534479 4:-3.4791868 5:0.77235013 6:1.5873165 7:0.11500262 8:-2.720746 9:0.075596862 10:-1.0760154 11:-0.74180311 12:1.4264507 13:-1.2620716 14:-1.527442 15:1.394068 16:-1.3601629 17:1.712009 18:-0.5243178 19:0.89885271 20:-0.0037018433 21:-1.6263124 22:0.20429888 23:0.94391656 24:-1.580438 25:0.4256269 26:-2.4838281 27:-1.7015483 28:1.2524377 29:-1.1425968 30:-4.248909 31:-7.2353902 32:-0.094717689 33:-3.0502021 34:2.8895493 35:-0.067710727 36:-2.7290819 37:-1.1436905 38:-0.94611657 39:-0.74808639 40:1.0428042 41:-3.7357244 42:-1.6745061 43:0.92654097 44:1.4017997 45:0.8592056 46:-1.6730525 47:-0.43119261 48:-2.5740891 49:-0.15799719 50:-2.9569237 51:0.70619905 52:1.1956798 53:-2.8941286 54:-1.0393966 55:-0.044780329 56:-0.47453451 57:-0.021535367 58:0.0089267856 59:-5.7533484 60:0.87808466 61:-1.5725579 62:-1.4615089 63:0.70346224 64:-2.5937836 65:-0.6543529 66:0.8705163 67:-5.1850815 68:-0.61184096 69:0.062600851 70:0.80519301 71:1.0980904 72:0.4954142 73:-3.7565982 74:0.56776553 75:-0.76992667 76:-0.42924368 77:-2.3754916 78:4.2630382 79:-2.6017737 80:-2.5877767 81:-3.8745453 82:-0.30050889 83:0.47625408 84:-2.4295328 85:0.77377939 86:-0.60940474 87:2.283932 88:-0.21216309 89:-3.323226 90:0.95205665 91:1.3607327 92:0.37250218 93:-0.79542923 94:3.9841413 95:4.5610781 96:-2.8209546 97:-1.2968292 98:1.5905547 99:-0.7731657 100:-0.92825913 101:-2.0856104 102:1.4702234 103:0.80990052 104:0.73160982 105:-3.3570476 106:2.6566775 107:-6.4094877 108:-2.1849115 109:-0.14885804 110:2.3642707 111:-1.1038152 112:0.14249356 113:-2.0949531 114:-0.84011739 115:-3.4405692 116:-0.35340163 117:-2.6902089 118:-0.71557224 119:0.6258536 120:2.3394678 121:0.53577667 122:1.6031338 123:-2.9436142 124:-1.6733507 125:0.53270537 126:1.6858737 127:-1.1675307 128:-0.79555911 129:-1.280923 130:1.7995223 131:0.10426372 132:-0.51255345 133:0.13768885 134:-2.5728662 135:-3.4564817 136:-0.36776182 137:-2.4290094 138:0.79412591 139:1.8968357 140:0.78998023 141:1.4019264 142:1.5355353 143:4.4881091 144:3.0597312 145:2.2156398 146:1.6404797 147:-1.3381057 148:-3.193135 149:-2.1608562 150:-0.17942005 151:-1.4491144 152:-2.0425603 153:0.64701903 154:0.54132521 155:-2.4827688 156:0.40208301 157:-1.2532295 158:0.45360994 159:-1.4707686 160:0.84589779 161:5.3169041 162:-0.86684966 163:-2.5887704 164:0.44206506 165:0.67118812 166:-1.6089232 167:1.2272469 168:-1.1093982 169:-5.7572036 170:2.1632783 171:3.0612051 172:-0.00077888742 173:-0.22619918 174:-1.4524387 175:0.57388425 176:0.6898151 177:-3.7602515 178:-2.7858644 179:-0.16235831 180:-0.19822767 181:-1.8892183 182:-0.23237438 183:-0.76605648 184:1.187811 185:-2.9717205 186:1.4345341 187:-1.2741055 188:-2.561023 189:3.6533625 190:-3.6806757 191:-1.0474186 192:0.075937964 193:1.0699639 194:0.23475051 195:0.26059577 196:-1.9977217 197:2.1445992 198:-4.353869 199:-1.4003646 200:-0.088148639 201:-1.5654169 202:-4.1592264 203:-1.4284513 204:-0.017848879 205:1.1058129 206:-0.95447081 207:0.44601339 208:0.45046747 209:-1.9157151 210:-1.0669652 211:-2.8368225 212:-0.31363988 213:-2.301264 214:-3.1841705 215:-1.8827112 216:-1.1296608 217:0.46876955 218:2.2547457 219:-1.7466688 220:3.3030272 221:-2.1917443 222:-1.0024612 223:2.6717389 224:0.58906412 225:0.019087441 226:0.54529488 227:0.57127315 228:0.090120308 229:-1.3338062 230:-2.5009084 231:1.9824498 232:-0.78323758 233:2.8397274 234:-1.9495156 235:-2.2148724 236:-1.2194761 237:-3.2103407 238:0.57490528 239:-1.0975405 240:-0.89071167 241:0.4545196 242:0.9331215 243:4.047914 244:-3.9588442 245:3.2698693 246:2.3334692 247:0.63503438 248:-1.9921972 249:0.73920286 250:-4.3675232 251:2.8796272 252:-3.9803224 253:0.066516787 254:-4.9859653 255:-1.2282803 256:0.9908489 
